{"label":"annualcrop","logit":-4.84458833313343,"bias":-0.17004531621932983,"weights":[0.07120053470134735,0.052518200129270554,0.04131191223859787,0.01650765724480152,0.03179175406694412,-0.07138771563768387,-0.1221715584397316,0.03767010569572449,0.037528522312641144,-0.0011730067199096084,-0.02178940735757351,-0.04194260016083717,-0.0025345913600176573,0.03788783773779869,-0.042660441249608994,0.019680438563227654,-0.061581723392009735,-0.01149178110063076,-0.00604172283783555,0.06013965606689453,0.022956445813179016,0.032844189554452896,-0.061027612537145615,-0.02828090637922287,0.04685056954622269,-0.012401076965034008,-0.018020659685134888,-0.04734126478433609,0.06278842687606812,-0.013844338245689869,0.03270278498530388,0.04750076308846474,-0.009215581230819225,0.008708072826266289,-0.04430294409394264,-0.054584700614213943,0.00897370744496584,-0.046274203807115555,0.06327328830957413,0.058481402695178986,0.001117213978432119,-0.0038545650895684958,-0.03512507677078247,0.00015263044042512774,0.004793897271156311,-0.06380465626716614,-0.002852377016097307,0.012732435017824173,0.04958701506257057,0.03907177597284317,0.02734319120645523,-0.046159952878952026,0.01680747978389263,0.0562654510140419,-0.05855719745159149,0.020758716389536858,0.019823111593723297,0.04162920266389847,0.10624496638774872,0.009973762556910515,0.019468998536467552,0.040207214653491974,0.07582766562700272,-0.019461093470454216,-0.027948951348662376,-0.012229020707309246,-0.08640522509813309,-0.0032484696712344885,0.03611157462000847,0.008089297451078892,-0.05314658209681511,-0.006445338483899832,-0.01946728117763996,0.011587558314204216,-0.0009516015416011214,-0.011685039848089218,-0.005397267639636993,-0.07378194481134415,0.05629271641373634,0.022711139172315598,0.038609206676483154,-0.060432158410549164,0.009804518893361092,-0.052839990705251694,0.04772956296801567,0.0037420536391437054,0.02221090905368328,-0.009947839193046093,0.10574599355459213,0.03663225471973419,-0.02878378890454769,0.01921302080154419,-0.06044495105743408,-0.025508135557174683,0.01952281780540943,-0.009612626396119595,-0.08705464750528336,0.005513927899301052,0.09164449572563171,-0.008480743505060673,0.020866740494966507,-0.00877666100859642,0.00275405147112906,-0.008674110285937786,0.03842500224709511,-0.10011404752731323,-0.0927601307630539,-0.007277126889675856,0.09395120292901993,-0.025432951748371124,0.05059975013136864,0.005498573184013367,-0.029224611818790436,-0.03867245838046074,0.017173942178487778,-0.026228798553347588,0.003675041953101754,0.0055807968601584435,-0.0027367952279746532,0.03260258957743645,-0.0008151712827384472,-0.006229478865861893,0.04038718342781067,0.005164711270481348,0.020620785653591156,-0.02567334845662117,-0.046134114265441895,0.00878489576280117,0.030941449105739594,0.0002140401629731059,0.1033606305718422,0.002576590748503804,0.0010814405977725983,-0.004922615364193916,-0.0017738441238179803,0.05010737478733063,-0.008522942662239075,0.06347742676734924,0.013828728348016739,-0.005391208920627832,0.0566520057618618,0.028687184676527977,-0.041706640273332596,0.04964837059378624,0.058340705931186676,-0.012354508973658085,-0.003450148506090045,-0.04537024721503258,0.06918396055698395,-0.04087047278881073,0.07546231150627136,-0.02006901428103447,-0.026702692732214928,-0.018260208889842033,0.08301914483308792,-0.08295869827270508,-0.013838499784469604,-0.030228808522224426,0.06783939898014069,0.06670480221509933,0.0060798125341534615,-0.011374392546713352,-0.041371144354343414,0.0395076647400856,0.003284716047346592,-0.04265806823968887,-0.04961139336228371,-0.025378108024597168,0.014583089388906956]}