{"label":"forest","logit":-18.462662875690196,"bias":0.1615227460861206,"weights":[-0.12114822864532471,-0.08752366155385971,0.030631430447101593,0.04853569343686104,0.03293828293681145,-0.04255954176187515,-0.015041882172226906,-0.027220355346798897,0.02907329797744751,0.030261488631367683,-0.1133570522069931,-0.029094167053699493,-0.004094264470040798,0.011905675753951073,0.0914585217833519,-0.014967766590416431,-0.07721597701311111,-0.07760754227638245,0.018519360572099686,0.0314316600561142,-0.0879998579621315,-0.036153823137283325,-0.04046500474214554,-0.021179549396038055,0.027732402086257935,0.01928909495472908,-0.03967684507369995,0.015333941206336021,-0.009860069490969181,0.052033089101314545,0.003239640034735203,0.002120083197951317,0.02151893451809883,0.002985942643135786,0.04293738678097725,0.0569421723484993,0.051004573702812195,0.01389012299478054,0.047580696642398834,0.042776718735694885,-0.07215887308120728,-0.05901606008410454,0.0011785083916038275,-0.03853313624858856,0.07069370895624161,-0.010843685828149319,0.0024423229042440653,0.05609782785177231,-0.06017313897609711,0.04245690256357193,-0.04520615562796593,0.020558109506964684,0.048088107258081436,0.051462896168231964,0.019759871065616608,-0.03812124952673912,0.03665164113044739,0.05932857468724251,-0.047819264233112335,0.04340989887714386,-0.06002111732959747,-0.07263689488172531,-0.0011773306177929044,0.017793891951441765,0.04733075201511383,-0.006977931130677462,-0.06221086531877518,0.052806686609983444,0.03184915706515312,-0.008994593285024166,-0.07494983822107315,-0.07403860986232758,-0.015024577267467976,-0.032252319157123566,0.07147929072380066,-0.008095761761069298,-0.050256188958883286,-0.01597830280661583,0.0269591324031353,0.024083981290459633,0.007029117085039616,-0.021326564252376556,-0.011557399295270443,-0.017833510413765907,0.007974265143275261,0.01984797604382038,0.01107754372060299,0.0058329286985099316,0.010034790262579918,-0.007982192561030388,-0.09020596742630005,-0.07343607395887375,0.005893359892070293,0.04070538282394409,0.06496736407279968,0.04981726035475731,-0.06875816732645035,0.04979619011282921,-0.03705761581659317,0.0506037212908268,-0.026014214381575584,-0.06631671637296677,0.03657243400812149,-0.017940634861588478,0.0548333004117012,0.04303489997982979,-0.0703178197145462,-0.05107889696955681,-0.07651423662900925,0.05705719441175461,-0.013754569925367832,-0.03947507590055466,0.015059791505336761,-0.002859135391190648,-0.009063045494258404,0.020121080800890923,0.002729634055867791,-0.0658641830086708,0.029451575130224228,0.023897211998701096,-0.1154676228761673,-0.019255412742495537,-0.030303984880447388,0.0224008671939373,0.013299950398504734,0.0557049959897995,-0.0008601094596087933,-0.05192531645298004,0.00009152034181170166,-0.004596207290887833,-0.02409980073571205,0.008768785744905472,-0.011622874066233635,-0.05411451682448387,0.02771139331161976,-0.002729379339143634,-0.0160334724932909,0.023324662819504738,0.010864932090044022,0.002792319282889366,-0.08954513072967529,0.015441183000802994,0.038949258625507355,-0.015234841965138912,0.014360858127474785,0.046742506325244904,0.0061935014091432095,-0.06689371168613434,0.02003779448568821,0.02239164151251316,-0.09073807299137115,-0.04708753898739815,0.03445073217153549,0.0012070423690602183,0.019909260794520378,-0.03129725903272629,-0.04509759321808815,-0.005222531966865063,0.05016658455133438,0.005325227975845337,0.00531685771420598,-0.03178497403860092,0.039942193776369095,-0.03509395569562912,0.02466450072824955,0.03309459239244461,0.0007659488474018872,-0.008431690745055676,-0.05070226266980171]}