{"label":"herbaceous","logit":11.378521872848454,"bias":0.09836673736572266,"weights":[0.003580966731533408,-0.08460225909948349,-0.024011900648474693,0.022210044786334038,0.029793042689561844,-0.013205841183662415,-0.013903970830142498,0.057054340839385986,-0.030767742544412613,-0.050177477300167084,-0.048071399331092834,-0.005990669131278992,0.04114045575261116,-0.005578384734690189,-0.07007218152284622,-0.008753701113164425,-0.05700942873954773,0.034697793424129486,-0.05913874879479408,-0.056811053305864334,0.023278778418898582,0.04856112226843834,-0.019418511539697647,0.0011713142739608884,-0.019706469029188156,0.04646972939372063,-0.05383657291531563,0.0024988693185150623,-0.09305237233638763,0.031674131751060486,0.03109692968428135,0.04063139855861664,-0.0031990106217563152,0.0004904811503365636,-0.023608185350894928,0.023870320990681648,0.0505305640399456,0.01354486495256424,-0.04360483959317207,0.02326640672981739,-0.035818327218294144,-0.02145923674106598,0.013405674137175083,0.047960761934518814,-0.06211117282509804,0.05244159325957298,0.024621427059173584,-0.03622492402791977,-0.06696351617574692,0.03225858137011528,-0.005600969307124615,0.018911127001047134,0.039769336581230164,0.0002649150846991688,-0.02946997620165348,0.02938028797507286,-0.01968526840209961,-0.008871913887560368,-0.025303183123469353,-0.004336506128311157,-0.010739865712821484,0.06034035235643387,-0.011421184986829758,0.009636030532419682,0.027827464044094086,0.0790385901927948,0.007067350670695305,-0.027724042534828186,-0.09406270831823349,-0.02833998203277588,-0.046643003821372986,0.02154211513698101,-0.015197441913187504,0.037682946771383286,-0.07288706302642822,0.0331743024289608,-0.01032116450369358,-0.013583437539637089,-0.009406795725226402,-0.021628446877002716,0.003912868909537792,0.07309412211179733,0.051811084151268005,0.043172623962163925,-0.09247510135173798,-0.008168287575244904,-0.015203708782792091,0.07637032866477966,-0.12753118574619293,0.022218132391572,-0.04330906644463539,-0.021089939400553703,-0.01766239106655121,0.002801070921123028,0.016752397641539574,-0.021020416170358658,-0.01039532944560051,0.06055513024330139,0.011940796859562397,-0.00009428099292563275,0.03574114665389061,0.040437232702970505,0.0037838194984942675,0.038861751556396484,-0.022915713489055634,0.06424590200185776,0.008187095634639263,0.015117399394512177,-0.0017359788762405515,0.03421936556696892,0.011375593952834606,0.03387700766324997,-0.028432201594114304,0.04824528098106384,0.03820108622312546,-0.0073270248249173164,-0.011262348853051662,0.0842103511095047,-0.041946593672037125,0.024991950020194054,0.0431629940867424,-0.0019795969128608704,0.036758918315172195,0.00027973687974736094,0.027338983491063118,0.051973018795251846,-0.02189568057656288,0.0906897708773613,-0.012640165165066719,-0.032564807683229446,-0.0011586123146116734,-0.034401796758174896,0.0304646585136652,-0.006003831047564745,-0.031043825671076775,0.02878548763692379,-0.06907271593809128,0.06544549018144608,-0.09124265611171722,-0.029763253405690193,-0.022338051348924637,0.00690679345279932,0.00862003955990076,0.057737722992897034,0.019066257402300835,-0.02632182464003563,0.04453432559967041,0.014592843130230904,0.01040453091263771,0.018793407827615738,0.04398645460605621,-0.017524948343634605,0.010602740570902824,-0.05069077014923096,0.03232541307806969,0.014517830684781075,0.021164100617170334,0.05394294112920761,-0.006130199879407883,-0.02693142183125019,-0.019675569608807564,0.019818542525172234,-0.015898823738098145,0.00829122681170702,-0.06074881926178932,-0.03875477984547615,-0.014025799930095673,0.0293405894190073,-0.06510112434625626]}