{"label":"highway","logit":8.713982679285856,"bias":-0.045772939920425415,"weights":[-0.0797211155295372,0.06519898772239685,0.016718106344342232,-0.05785532668232918,-0.07044108211994171,0.1363411694765091,0.07679794728755951,-0.011197115294635296,0.04151618108153343,-0.06392508745193481,-0.02893868461251259,0.004571923986077309,-0.011530525051057339,-0.027246614918112755,-0.04022450000047684,-0.05520394816994667,0.03322884812951088,0.01789615862071514,0.0027596757281571627,0.04651523381471634,-0.0030606475193053484,-0.0121736666187644,-0.06154771149158478,-0.010505592450499535,-0.008800962939858437,0.005462510045617819,0.01670280657708645,0.08073791861534119,0.04209091514348984,0.03469210863113403,0.05429144948720932,-0.020666860044002533,-0.01166828628629446,-0.05637690797448158,0.058651577681303024,-0.0039663794450461864,-0.01037741731852293,-0.016852209344506264,0.016350336372852325,0.07393274456262589,0.0020222640596330166,0.029336970299482346,-0.05598164722323418,0.0434345118701458,0.050176385790109634,-0.02319907583296299,-0.026920706033706665,0.07336974143981934,0.009389457292854786,-0.01632707752287388,0.09417849779129028,-0.0052214269526302814,-0.017911866307258606,0.05612761154770851,0.015811679884791374,-0.0056274570524692535,-0.0026912596076726913,-0.006072435062378645,0.05251113697886467,0.028966322541236877,0.04343852400779724,-0.03720620274543762,0.0031783143058419228,-0.036375585943460464,0.02994074858725071,-0.06763691455125809,0.024874722585082054,0.011098000220954418,0.004383578430861235,0.017733696848154068,0.027921317145228386,0.04136795550584793,-0.01807703822851181,-0.01216246746480465,-0.04334305226802826,0.01692613773047924,0.017893673852086067,0.024418359622359276,-0.0064329421147704124,-0.012830717489123344,0.0031259083189070225,-0.023415563628077507,-0.02732783369719982,0.0072978041134774685,-0.035099826753139496,0.029474686831235886,-0.07810032367706299,-0.0685809776186943,0.06622202694416046,0.00026832809089682996,0.03178469464182854,0.054677028208971024,-0.024295749142766,0.0404035784304142,0.06704635173082352,-0.005548224784433842,-0.00904969871044159,0.047419432550668716,0.07620175182819366,0.04312257841229439,-0.042803503572940826,0.02738221362233162,-0.026240790262818336,0.03423647582530975,0.013405149802565575,-0.01990002952516079,-0.054706983268260956,0.02806408330798149,0.04828588292002678,-0.020073920488357544,0.04521840065717697,-0.07901010662317276,0.020838061347603798,0.009877494536340237,0.008055285550653934,0.01438077911734581,-0.008690141141414642,-0.06746017187833786,0.02576364576816559,0.039139676839113235,0.024140285328030586,0.01065104454755783,0.011839978396892548,-0.029307695105671883,0.004510110709816217,0.0213887058198452,-0.012494445778429508,-0.018186047673225403,-0.02812379039824009,0.007100027985870838,-0.07019028067588806,0.0789957121014595,0.04960440844297409,-0.034439340233802795,0.0013847658410668373,-0.002111217239871621,-0.023319631814956665,-0.02389935590326786,0.027569444850087166,0.023000944405794144,0.0024762034881860018,0.007860054261982441,-0.024293426424264908,-0.004326316062361002,0.00229052291251719,0.00975835882127285,0.07091014832258224,-0.0782645046710968,0.01641622744500637,-0.035355344414711,0.004003962967544794,0.009917990304529667,-0.041100554168224335,0.05173882097005844,0.022392025217413902,0.022331787273287773,-0.03020799160003662,-0.020168747752904892,0.023669306188821793,0.049772728234529495,-0.023879440501332283,0.04159581661224365,0.04231710359454155,-0.04990370199084282,0.045840054750442505,-0.018415361642837524,0.02163410745561123,0.028487278148531914,0.018437126651406288]}