{"label":"industrial","logit":9.642978744618322,"bias":-0.27409636974334717,"weights":[-0.023824436590075493,-0.028310414403676987,-0.000609134731348604,-0.04423105716705322,0.022325797006487846,0.0029091304168105125,-0.042761482298374176,-0.08563292026519775,0.015674395486712456,-0.013788784854114056,-0.009470569901168346,-0.04295174404978752,0.07501180469989777,-0.0035814112052321434,-0.07695887982845306,0.06075111776590347,0.0623469315469265,-0.009898493066430092,0.008084246888756752,-0.0337124764919281,-0.023462407290935516,-0.07511893659830093,0.03610585257411003,-0.008883723057806492,-0.05704673379659653,-0.07976343482732773,-0.05405401438474655,0.025448858737945557,0.060049884021282196,0.004147604573518038,-0.015898341313004494,-0.014881347306072712,0.028419654816389084,0.057472553104162216,-0.03822692111134529,-0.03466631472110748,0.026898527517914772,0.02992238476872444,0.004734142683446407,0.03686608374118805,-0.00940848607569933,0.04468650370836258,-0.011604128405451775,0.033070143312215805,-0.04416845366358757,-0.007547483779489994,0.05536475032567978,-0.05529049411416054,-0.020166529342532158,-0.017400415614247322,0.01385208498686552,0.00021596944134216756,0.05530553311109543,0.02257627435028553,-0.041574493050575256,0.025844547897577286,0.0679582804441452,-0.0397675521671772,-0.006819881498813629,0.02128889411687851,-0.015293467789888382,-0.07856819033622742,0.02755582705140114,-0.02684714086353779,-0.0004314940015319735,0.045241378247737885,0.036764200776815414,-0.02981811761856079,0.014529852196574211,-0.04786468297243118,-0.10341333597898483,-0.09026768058538437,0.025190670043230057,0.018493788316845894,-0.016995348036289215,-0.018626544624567032,0.03662991523742676,-0.09515966475009918,0.02585730329155922,0.019789524376392365,-0.006876107770949602,0.06467323750257492,-0.0397721603512764,-0.007638762705028057,-0.05072623863816261,0.006299168802797794,-0.00733792781829834,0.0022953187581151724,0.006881643086671829,0.03724450245499611,-0.085728719830513,0.02078268676996231,0.05531427264213562,0.038211043924093246,-0.027944806963205338,0.012062828056514263,0.008801821619272232,-0.06814455986022949,-0.0627189353108406,-0.013217504136264324,0.031157270073890686,0.015433700755238533,-0.0032714800909161568,-0.025686221197247505,-0.07336459308862686,-0.02084743045270443,0.004912936594337225,-0.04313353821635246,-0.017225757241249084,0.04082043468952179,0.016730787232518196,0.07263968139886856,0.03339086472988129,0.011981118470430374,-0.06182645633816719,0.0468660406768322,0.019859934225678444,-0.05007975921034813,0.06764741986989975,-0.01807185634970665,-0.04643828794360161,-0.06168670579791069,0.07518882304430008,0.01944991573691368,-0.06826779246330261,0.062094662338495255,-0.03841746598482132,-0.0947519838809967,0.004418092779815197,-0.05892295017838478,0.01774025149643421,-0.0001302969758398831,0.02237924560904503,0.0473424568772316,-0.04129049554467201,-0.06443990021944046,0.04337810352444649,-0.0634615421295166,0.02896750159561634,0.006080760154873133,0.047064170241355896,-0.03512472286820412,-0.02119748666882515,0.028901681303977966,-0.06092887371778488,0.04247346892952919,0.04238465800881386,-0.044825781136751175,-0.030508050695061684,-0.06523079425096512,-0.025177475064992905,0.0028550163842737675,0.05225074291229248,0.055994559079408646,-0.048123084008693695,0.04474080353975296,-0.016912491992115974,-0.03567799925804138,0.02944503352046013,-0.06381747126579285,-0.01655469834804535,0.0007446056115441024,0.006461784243583679,0.024607837200164795,-0.07662833482027054,0.04326555132865906,0.00765353674069047,-0.03370894864201546,-0.0016881978372111917]}