{"label":"pasture","logit":0.8451637229249293,"bias":0.12947984039783478,"weights":[0.0006848865887150168,-0.030973421409726143,-0.009424073621630669,0.04811027646064758,0.05689692124724388,0.005291534587740898,0.056998707354068756,0.049779780209064484,0.03958775848150253,-0.09721221774816513,0.020595986396074295,-0.0053778961300849915,-0.031703751534223557,-0.011760898865759373,0.0022808867506682873,0.055408403277397156,0.01813199557363987,-0.005125090945512056,-0.007532687857747078,0.004858086816966534,0.05847015231847763,0.015238120220601559,0.03546157106757164,0.007631069049239159,-0.040166474878787994,0.06620854884386063,-0.0623956173658371,0.09363318234682083,-0.033266328275203705,-0.008167548105120659,-0.03763244301080704,-0.02393576316535473,-0.0015848660841584206,0.005435576196759939,0.074293352663517,0.061878517270088196,0.0061461604200303555,0.0517781563103199,0.04068363085389137,0.030186228454113007,0.05564378201961517,-0.0434989407658577,0.016890721395611763,0.013713199645280838,0.029078448191285133,0.009118111804127693,-0.05691247433423996,0.014823810197412968,0.05877657234668732,-0.07238589227199554,-0.004771445412188768,-0.03895154595375061,-0.0017198288114741445,0.04559442773461342,0.058356817811727524,-0.056145455688238144,-0.022189052775502205,0.023024311289191246,0.0206977017223835,0.0074652149342000484,0.08539392054080963,0.03224538266658783,-0.005433487705886364,-0.034311968833208084,0.005348502192646265,0.012382375076413155,0.0018058567075058818,0.05910857766866684,-0.044500693678855896,-0.09021215885877609,0.08171667903661728,0.006311484612524509,-0.00649080378934741,0.016857316717505455,-0.026856809854507446,0.03375000134110451,-0.04144750162959099,-0.010594167746603489,0.020688895136117935,-0.08282100409269333,-0.02012629806995392,0.008954554796218872,0.030198143795132637,0.00926419161260128,0.03226621448993683,0.02276425249874592,0.03713521361351013,0.06047005206346512,-0.013644326478242874,-0.08438624441623688,0.015304225496947765,-0.04323381558060646,-0.01545683853328228,0.05360380560159683,0.006534575950354338,-0.03436804562807083,0.014014319516718388,-0.0003615840687416494,0.02659665048122406,-0.06186293810606003,-0.020147770643234253,-0.019413452595472336,-0.03402988240122795,0.005082376766949892,0.07575743645429611,0.014301136136054993,0.027417192235589027,0.00859325472265482,-0.01144598051905632,-0.04033873975276947,-0.02469177544116974,0.03697946295142174,-0.02311195619404316,-0.0428241565823555,-0.01026162039488554,0.05166986212134361,-0.049368906766176224,0.043876294046640396,0.006230188068002462,-0.05344857648015022,0.02869492396712303,-0.013351098634302616,-0.04294233396649361,-0.04167679324746132,0.06849487870931625,0.06393194943666458,0.0227042268961668,-0.026535527780652046,0.014105605892837048,-0.033760059624910355,0.025115057826042175,-0.024147503077983856,0.009732234291732311,-0.014004352502524853,0.0777699425816536,0.0222247876226902,0.008108502253890038,-0.004321995656937361,0.002888565184548497,-0.005105732474476099,-0.031475525349378586,0.018406657502055168,-0.07521652430295944,-0.010779748670756817,-0.03886888176202774,0.027710461989045143,-0.02985343709588051,0.036400604993104935,0.04011428728699684,-0.07566621154546738,-0.030086571350693703,-0.012166472151875496,0.007754272315651178,0.002514932071790099,0.026666130870580673,0.0782841295003891,0.021609723567962646,0.03797384724020958,0.026898052543401718,-0.017013732343912125,-0.040244750678539276,0.00026058516232296824,-0.0036413127090781927,0.006931699346750975,0.034181781113147736,0.04434264078736305,-0.02957523614168167,-0.02298240177333355,-0.035320959985256195]}