{"label":"permanentcrop","logit":7.739185756239544,"bias":-0.1442318707704544,"weights":[-0.0008194272522814572,0.06167857348918915,0.023948825895786285,0.014820519834756851,-0.05326882749795914,0.03234277665615082,-0.00471441401168704,0.015587316825985909,0.037164557725191116,-0.0538146011531353,0.07382742315530777,0.09128467738628387,-0.030933871865272522,0.01348828710615635,-0.07570997625589371,-0.03157878667116165,0.053173717111349106,0.06486523151397705,-0.021493520587682724,0.005254837218672037,-0.028129853308200836,0.017765143886208534,-0.011331920512020588,-0.02559252269566059,-0.07380807399749756,-0.029233042150735855,-0.030208198353648186,-0.013526293449103832,-0.021341858431696892,-0.07742949575185776,-0.002964155515655875,-0.008717850781977177,0.00545616215094924,-0.026217786595225334,-0.06094749644398689,-0.016151217743754387,0.011560170911252499,0.013836149126291275,-0.012285030446946621,0.03026309423148632,-0.0052427747286856174,0.042524609714746475,0.05020534247159958,-0.05079516023397446,-0.05881480500102043,-0.02957642450928688,-0.02273728884756565,0.024249473586678505,0.00898759812116623,0.017939303070306778,0.024846462532877922,0.02830316871404648,0.08344660699367523,-0.012744221836328506,-0.0653361976146698,0.004912856966257095,-0.07553146034479141,-0.051211703568696976,-0.006667079869657755,0.04739914461970329,0.01212365459650755,-0.02964443527162075,0.03987297788262367,-0.029952600598335266,-0.07629191130399704,0.025783436372876167,0.057910580188035965,0.04231199994683266,0.04427886754274368,-0.028264351189136505,-0.03147443011403084,0.005134589038789272,-0.0400032214820385,0.0009980231989175081,0.00438911747187376,0.03913027420639992,0.027273990213871002,0.07779812067747116,0.022321157157421112,0.01945396140217781,0.032970987260341644,-0.012323723174631596,0.05252208188176155,0.018859734758734703,-0.019683439284563065,0.04578142985701561,0.012924455106258392,0.04614250734448433,-0.0014373988378793001,-0.04623309522867203,0.024457594379782677,0.018469270318746567,0.06893900781869888,-0.04554419592022896,-0.08012480288743973,-0.040847908705472946,0.005437174346297979,-0.009415353648364544,0.026597296819090843,0.02602934092283249,0.0026849592104554176,0.055626798421144485,0.04510948434472084,0.03289639204740524,-0.03305281326174736,-0.024776451289653778,-0.054709892719984055,0.028018098324537277,-0.030204446986317635,-0.013648178428411484,0.010419569909572601,0.059675753116607666,-0.019454583525657654,0.023010751232504845,-0.06029839068651199,-0.01719595678150654,0.01946169137954712,0.0529894083738327,0.0721445083618164,0.03954387456178665,0.03115348517894745,0.013735397718846798,0.07489905506372452,0.010966978967189789,-0.08550677448511124,-0.016591059044003487,0.04691281542181969,-0.00287857698276639,-0.01128716766834259,0.028149032965302467,-0.017409557476639748,0.0038179662078619003,0.026120932772755623,-0.00869628507643938,-0.027950705960392952,0.004870295990258455,-0.023188915103673935,0.005390494130551815,-0.0433211624622345,0.021411433815956116,0.008711891248822212,0.060722872614860535,-0.006096794269979,-0.016088658943772316,0.043101098388433456,-0.05124441161751747,-0.03368539735674858,-0.01306925993412733,0.03522823378443718,-0.05510760471224785,-0.04722423478960991,0.0025218192022293806,0.02864173799753189,-0.005507844965904951,0.05051342397928238,-0.009294348768889904,-0.04714204743504524,0.0010845661163330078,0.022834371775388718,-0.004258026834577322,0.003071206621825695,0.05513475090265274,0.03612949326634407,-0.03523734211921692,-0.024852726608514786,-0.009280781261622906,0.05309209227561951,0.007025631610304117,0.02516670897603035]}