{"label":"residential","logit":15.786494049935163,"bias":-0.04050200805068016,"weights":[0.018855668604373932,-0.034847572445869446,-0.03417061269283295,0.055141348391771317,-0.014854428358376026,0.0824471190571785,0.013150776736438274,-0.053581029176712036,-0.014066305011510849,0.016567179933190346,-0.0793202817440033,0.05188385397195816,0.010852792300283909,-0.04717583954334259,0.015589823946356773,-0.002608811715617776,0.008388788439333439,0.007847806438803673,-0.001960544614121318,-0.02337012067437172,-0.07399547845125198,0.05041974410414696,0.024329330772161484,-0.0462690144777298,-0.007233946584165096,0.08136109262704849,0.04509530961513519,-0.014002739451825619,-0.01495285239070654,-0.047414448112249374,-0.06823998689651489,0.07446716725826263,0.05532035604119301,0.014816973358392715,0.05071217194199562,0.02158030867576599,0.08890032768249512,0.027643786743283272,-0.05061625316739082,-0.02833607606589794,-0.031117483973503113,-0.014780900441110134,0.061868615448474884,0.05642624571919441,-0.05441635847091675,0.05733908340334892,0.05473778396844864,-0.07831396907567978,-0.020256828516721725,-0.07583629339933395,-0.03941655904054642,0.038217078894376755,0.00774433184415102,0.024388030171394348,0.001957251923158765,0.06437072157859802,0.05008408799767494,0.025302687659859657,-0.05270328372716904,-0.0711992010474205,-0.03068237379193306,-0.010459241457283497,0.01681974157691002,-0.056783612817525864,0.021716123446822166,-0.04768498241901398,0.06211438030004501,0.02653723582625389,0.009651653468608856,-0.056902218610048294,-0.031749095767736435,0.012419922277331352,-0.013906764797866344,-0.015593967400491238,-0.00666187284514308,0.011418481357395649,0.05846933275461197,-0.025392597541213036,-0.11695167422294617,-0.05827762559056282,-0.05452525615692139,0.054989688098430634,0.031211378052830696,-0.0009323256672360003,-0.028974561020731926,-0.0006471155793406069,0.055978287011384964,-0.006756882183253765,-0.09340251982212067,0.005204715300351381,0.022371690720319748,-0.015022847801446915,0.046505190432071686,-0.014158098958432674,-0.01694483868777752,-0.01143687404692173,-0.024273507297039032,-0.017469007521867752,-0.07220114767551422,0.017490187659859657,0.0016358477296307683,-0.007218736223876476,-0.013278882950544357,0.047057200223207474,0.023860149085521698,0.06695535778999329,0.041803088039159775,-0.022362662479281425,-0.04008956626057625,-0.05823514983057976,-0.006462771911174059,-0.012438527308404446,0.052042294293642044,0.020154042169451714,-0.03168702498078346,-0.03990909829735756,0.08220452815294266,-0.02609412744641304,-0.030572107061743736,-0.0037699725944548845,-0.047099195420742035,0.08881302922964096,0.07221062481403351,-0.034405987709760666,-0.05581191927194595,-0.025676198303699493,0.013242975808680058,0.11239556968212128,-0.02087499015033245,0.01161782257258892,-0.04846121743321419,0.007760196458548307,-0.04713653028011322,-0.03479393571615219,-0.038746338337659836,-0.03869735449552536,-0.03136853501200676,-0.0004626587906386703,-0.01084847655147314,0.018920373171567917,0.001635252614505589,0.02059272862970829,0.012844473123550415,-0.024922069162130356,0.016158577054739,0.028878269717097282,0.0741465613245964,-0.014651237055659294,-0.04103656858205795,0.011070851236581802,-0.0027905998285859823,-0.007978920824825764,-0.013381995260715485,-0.023246249184012413,-0.013703019358217716,-0.02099502645432949,0.05276310443878174,-0.05691879987716675,-0.04780005291104317,-0.028084510937333107,-0.01119844801723957,0.015984313562512398,-0.018285278230905533,-0.006349721923470497,-0.019958194345235825,0.018580954521894455,0.01911531202495098,-0.03819867596030235,-0.0665469840168953]}