{"label":"river","logit":5.113348412319948,"bias":0.03418060764670372,"weights":[-0.05028914287686348,0.029769986867904663,-0.026367830112576485,-0.049031827598810196,0.013271559029817581,-0.006346023175865412,0.07584993541240692,-0.011687155812978745,0.04856798052787781,0.06795067340135574,-0.08674907684326172,-0.015746762976050377,0.038208529353141785,-0.041512370109558105,0.044818293303251266,0.01688164658844471,0.04406660795211792,0.011131119914352894,0.05667758733034134,0.004345563240349293,-0.02626507356762886,0.06549156457185745,0.06887534260749817,-0.05323687940835953,0.04795330390334129,-0.012957519851624966,0.013222099281847477,0.011611105874180794,0.038572732359170914,0.05856899917125702,-0.0008463015547022223,0.001223729457706213,0.036581866443157196,0.044035375118255615,-0.05341899022459984,0.0502798892557621,-0.02295743115246296,0.015281440690159798,0.032716624438762665,0.0025528743863105774,-0.004835136234760284,0.03499922156333923,0.0012379968538880348,0.04349244758486748,-0.08284056931734085,0.07095818221569061,-0.024854512885212898,0.027611030265688896,0.11051572114229202,-0.02950022555887699,-0.01389833353459835,-0.006195405963808298,0.0037805214524269104,-0.04547259956598282,0.01026962324976921,0.0014353948645293713,-0.004316361155360937,-0.046472787857055664,0.014529083855450153,-0.035231348127126694,0.003721448592841625,0.07240864634513855,-0.004234065301716328,0.03595458343625069,0.0077012949623167515,0.012216990813612938,0.016098320484161377,0.007561532314866781,0.014624139294028282,-0.03924080356955528,-0.03484867140650749,0.022448444738984108,-0.00513172522187233,-0.014775590971112251,-0.038085129112005234,0.053276289254426956,0.058628156781196594,0.027873586863279343,0.03725447133183479,0.05725318565964699,-0.014721757732331753,-0.018886690959334373,0.027824489399790764,-0.028766687959432602,0.038990892469882965,0.0657806396484375,-0.00865261908620596,-0.039110273122787476,0.06746578961610794,-0.005446603521704674,0.04773203283548355,-0.025892779231071472,0.03342480957508087,-0.058539725840091705,-0.04544445499777794,0.04263395443558693,-0.002767396392300725,0.02407776191830635,0.03982480987906456,0.0801207646727562,-0.014381133019924164,-0.030877603217959404,-0.026251502335071564,0.04809000715613365,-0.036664750427007675,0.05580798164010048,-0.015245096758008003,-0.031061429530382156,0.06971258670091629,-0.03850741684436798,0.04419330880045891,0.014665852300822735,0.02709525264799595,0.01892193779349327,-0.03402496129274368,-0.015200207009911537,-0.022743256762623787,0.041815925389528275,-0.0074067991226911545,-0.005792601034045219,-0.0283020231872797,-0.003616372589021921,0.0658884346485138,-0.007303113583475351,-0.004824481438845396,0.00419228058308363,-0.004742867778986692,0.013533689081668854,-0.03485753387212753,0.0006624093512073159,-0.01593298278748989,-0.01085744146257639,0.058099180459976196,0.021004693582654,-0.031037256121635437,0.0025593547616153955,0.014571843668818474,-0.02045324631035328,0.014101904816925526,0.025483690202236176,-0.003949132282286882,0.013571889139711857,0.060886189341545105,0.017352433875203133,0.03223235160112381,0.029105447232723236,-0.027140382677316666,-0.041551828384399414,0.0012220267672091722,-0.001989830983802676,0.02413126453757286,-0.0024611474946141243,0.03795275464653969,-0.02876509353518486,0.017966410145163536,0.015625493600964546,0.029499836266040802,-0.0568821094930172,-0.016958709806203842,0.046209387481212616,0.0005624272162094712,0.0071969651617109776,-0.0050043161027133465,-0.053950753062963486,-0.05246400460600853,-0.01142190396785736,0.022688670083880424,0.04402998462319374,0.07409073412418365]}