{"label":"sealake","logit":-25.934085607580933,"bias":0.2510955333709717,"weights":[0.025693317875266075,-0.02243366278707981,-0.014471801929175854,-0.050317663699388504,0.044815920293331146,0.004700387828052044,0.03240490332245827,0.00554385082796216,-0.054552145302295685,0.07775728404521942,0.05042074993252754,-0.011386152356863022,-0.0727350190281868,-0.015052874572575092,0.0029404284432530403,-0.05500131472945213,0.048587799072265625,-0.015333766117691994,-0.0014595347456634045,0.022458819672465324,0.002346961759030819,0.023654703050851822,0.03451103717088699,0.052846524864435196,-0.02612713910639286,-0.07317707687616348,0.02944903075695038,0.04250131919980049,-0.06456782668828964,0.09556315839290619,0.0836208164691925,0.002795509761199355,-0.024675823748111725,0.004647720139473677,0.021931875497102737,-0.021042903885245323,0.029064999893307686,0.020902574062347412,-0.06242676451802254,0.07655619084835052,-0.014430366456508636,-0.049796003848314285,0.023398250341415405,0.006943714804947376,0.006995811592787504,0.015645580366253853,-0.064700648188591,-0.014924083836376667,0.036087434738874435,0.09945520758628845,0.04535607993602753,-0.05960655212402344,0.023120058700442314,-0.043002814054489136,-0.0038039986975491047,-0.036947790533304214,0.037055980414152145,-0.011304398067295551,-0.07353736460208893,0.09042564779520035,0.08512911200523376,-0.051316894590854645,0.017583275213837624,-0.055283062160015106,-0.04203341528773308,-0.08081161230802536,0.01666647382080555,-0.013693762011826038,-0.01293970551341772,0.0801088958978653,0.014134960249066353,-0.006893252022564411,-0.03200678899884224,0.013409074395895004,0.017887504771351814,-0.008079602383077145,0.037316907197237015,0.03949906677007675,-0.060083724558353424,0.010301608592271805,0.005966981872916222,0.031232183799147606,-0.05011961981654167,0.04359954968094826,0.03181832283735275,-0.024403858929872513,-0.03619860112667084,0.04637017101049423,0.045605000108480453,0.04029206186532974,-0.006958235055208206,0.052350178360939026,-0.04087001457810402,-0.04459098353981972,0.07240230590105057,-0.02034909278154373,-0.008791301399469376,-0.034517720341682434,-0.0521354153752327,0.02655838243663311,0.012664911337196827,0.026187818497419357,0.03155471011996269,0.015296867117285728,-0.01864740066230297,0.004785766359418631,0.00726418849080801,-0.04886516183614731,-0.018738534301519394,0.09209693968296051,0.07687855511903763,0.03034382313489914,0.03253405913710594,0.02251051552593708,-0.0319318026304245,-0.00335248582996428,0.04182291775941849,-0.009990130551159382,-0.0629054382443428,0.020631039515137672,-0.007315565831959248,0.02525085210800171,-0.003301531309261918,0.03264708071947098,0.06814173609018326,-0.04480051249265671,0.0037738827522844076,-0.029805364087224007,0.04855140298604965,0.015586892142891884,-0.010957430116832256,-0.06144274026155472,0.02682683616876602,0.019912738353013992,0.05397781357169151,-0.05065794661641121,-0.016240639612078667,0.016638070344924927,-0.034916289150714874,0.10681654512882233,-0.02343764714896679,0.002508115954697132,0.019469698891043663,-0.053707826882600784,-0.0021250827703624964,-0.005097489804029465,-0.057918522506952286,-0.055419377982616425,0.0020207175984978676,0.06205039843916893,0.014745859429240227,-0.034099578857421875,0.010853257961571217,-0.04500780627131462,-0.0089547298848629,0.023877892643213272,0.03182376176118851,-0.05222665145993233,-0.04784828796982765,0.0835336297750473,-0.013070110231637955,-0.017970794811844826,0.03874830901622772,-0.008671083487570286,-0.04135826230049133,-0.025186100974678993,-0.01594388857483864,-0.07147665321826935,-0.051571324467659]}